<?xml version="1.0"?>
<opencv_storage>
<!-- Created using Computer Vision System Toolbox(tm) for MATLAB(R) -->
<!-- Version 9.2.0.556344 (R2017a) -->
<!-- Compatible with OpenCV 3.1 -->
<cascade>
  <stageType>BOOST</stageType>
  <featureType>LBP</featureType>
  <height>32</height>
  <width>32</width>
  <stageParams>
    <boostType>GAB</boostType>
    <minHitRate>9.9699997901916504e-01</minHitRate>
    <maxFalseAlarm>3.0000001192092896e-01</maxFalseAlarm>
    <weightTrimRate>9.4999999999999996e-01</weightTrimRate>
    <maxDepth>1</maxDepth>
    <maxWeakCount>100</maxWeakCount></stageParams>
  <featureParams>
    <maxCatCount>256</maxCatCount>
    <featSize>1</featSize></featureParams>
  <stageNum>40</stageNum>
  <stages>
    <!-- stage 0 -->
    <_>
      <maxWeakCount>22</maxWeakCount>
      <stageThreshold>-2.2187309265136719e+00</stageThreshold>
      <weakClassifiers>
        <_>
          <internalNodes>
            0 -1 15 -1 -3081 -2049 -3085 -352323585 -3081 1207956983
            1442796021</internalNodes>
          <leafValues>
            -7.7550464868545532e-01 3.9823272824287415e-01</leafValues></_>
        <_>
          <internalNodes>
            0 -1 2218 -1 1937733427 -67108865 842267519 -83886081
            -218369217 -84149505 842201979</internalNodes>
          <leafValues>
            -6.7880588769912720e-01 4.6854808926582336e-01</leafValues></_>
        <_>
          <internalNodes>
            0 -1 233 -32769 2138256251 -4194305 858929970 -45185
            2138243863 -1 1936949119</internalNodes>
          <leafValues>
            -6.1775356531143188e-01 4.6213778853416443e-01</leafValues></_>
        <_>
          <internalNodes>
            0 -1 2280 -1073741825 -1347682369 -8389121 -2049 163559679
            145459643 234868989 234880255</internalNodes>
          <leafValues>
            -4.9762567877769470e-01 4.9893283843994141e-01</leafValues></_>
        <_>
          <internalNodes>
            0 -1 337 -1302 -252464414 -1537 -201342993 -228069150
            2301954 -209717249 1946136923</internalNodes>
          <leafValues>
            -3.7257209420204163e-01 4.1063144803047180e-01</leafValues></_>
        <_>
          <internalNodes>
            0 -1 185 -33554433 1619000575 2134898471 1920729079
            2004320087 3365727 1970665283 1400370431</internalNodes>
          <leafValues>
            -3.6297935247421265e-01 3.1416535377502441e-01</leafValues></_>
        <_>
          <internalNodes>
            0 -1 1862 -1109442561 -134766601 -132229 1073689597
            -1143099393 -1082179649 -1073824773 151521560</internalNodes>
          <leafValues>
            -3.8545426726341248e-01 2.3544056713581085e-01</leafValues></_>
        <_>
          <internalNodes>
            0 -1 2263 -1273 1097465183 -264713 1082127343 -134744713
            89355591 1471083893 1433654271</internalNodes>
          <leafValues>
            -3.4371572732925415e-01 2.7038779854774475e-01</leafValues></_>
        <_>
          <internalNodes>
            0 -1 2456 -614465537 -268435843 -196609 846901247 -52690945
            -143130625 -84934657 -1204242498</internalNodes>
          <leafValues>
            -2.0701605081558228e-01 3.6765947937965393e-01</leafValues></_>
        <_>
          <internalNodes>
            0 -1 15 -285214745 -4292613 -786955 2000678140 355823237
            1078118873 -1201452055 -1441487846</internalNodes>
          <leafValues>
            -2.2382284700870514e-01 3.4997197985649109e-01</leafValues></_>
        <_>
          <internalNodes>
            0 -1 2049 926416797 -1346650123 1027031039 -313729
            -1879326721 -1347321862 196815092 196739320</internalNodes>
          <leafValues>
            -2.3530356585979462e-01 2.9304248094558716e-01</leafValues></_>
        <_>
          <internalNodes>
            0 -1 2218 -84723905 -1937720324 511639167 -983795995
            2012926106 189952704 -1820928206 -907473258</internalNodes>
          <leafValues>
            -2.1527478098869324e-01 3.2282570004463196e-01</leafValues></_>
        <_>
          <internalNodes>
            0 -1 42 -272760849 -5243969 -262145 -1042419745 -1347420229
            -1231307009 1476392821 -706750987</internalNodes>
          <leafValues>
            -2.0250996947288513e-01 3.4421133995056152e-01</leafValues></_>
        <_>
          <internalNodes>
            0 -1 722 -1428236297 -497100034 1513831389 -495818049
            1080229759 107138941 290841943 1148577279</internalNodes>
          <leafValues>
            -2.7607521414756775e-01 2.1675470471382141e-01</leafValues></_>
        <_>
          <internalNodes>
            0 -1 2512 -296133 -1946944395 -4278742 1080535974 534508389
            97736149 1438115188 1413216233</internalNodes>
          <leafValues>
            -3.0546644330024719e-01 1.9189843535423279e-01</leafValues></_>
        <_>
          <internalNodes>
            0 -1 406 2129606015 -1108377803 -8431969 -270566401
            933181297 -178840641 1518294374 -1343489</internalNodes>
          <leafValues>
            -2.2124145925045013e-01 2.7070543169975281e-01</leafValues></_>
        <_>
          <internalNodes>
            0 -1 233 1995603970 -1296151306 914241266 1182515917
            846475329 -768779969 91564567 -1676148493</internalNodes>
          <leafValues>
            -3.0417591333389282e-01 2.0164985954761505e-01</leafValues></_>
        <_>
          <internalNodes>
            0 -1 2808 -419987593 -523339913 -538984529 1785102079
            -319292035 1716762239 -455084049 -529076805</internalNodes>
          <leafValues>
            -2.3191858828067780e-01 2.3194792866706848e-01</leafValues></_>
        <_>
          <internalNodes>
            0 -1 1594 -629245476 -644738 934297567 891425008 -1913413636
            -1159895298 603503869 452987064</internalNodes>
          <leafValues>
            -3.0272996425628662e-01 1.8727554380893707e-01</leafValues></_>
        <_>
          <internalNodes>
            0 -1 2280 1251682336 847161574 710883580 16627051
            -1291880571 119241340 907753970 -233111048</internalNodes>
          <leafValues>
            -2.7641734480857849e-01 1.9537611305713654e-01</leafValues></_>
        <_>
          <internalNodes>
            0 -1 779 732999671 -275662871 -6626313 -1574659 -1369128961
            -1678263321 1589589887 235668945</internalNodes>
          <leafValues>
            -2.6257044076919556e-01 1.9429835677146912e-01</leafValues></_>
        <_>
          <internalNodes>
            0 -1 2849 -1350565889 -1393852733 -28753 -278928385
            -1225067265 -1571221889 -805576745 229628157</internalNodes>
          <leafValues>
            -1.7523255944252014e-01 2.7533867955207825e-01</leafValues></_></weakClassifiers></_>
    <!-- stage 1 -->
    <_>
      <maxWeakCount>42</maxWeakCount>
      <stageThreshold>-2.1037194728851318e+00</stageThreshold>
      <weakClassifiers>
        <_>
          <internalNodes>
            0 -1 10 -1 -2061 -9 -2061 -268435457 -1033 -2057 -134220303</internalNodes>
          <leafValues>
            -6.3443696498870850e-01 3.4090769290924072e-01</leafValues></_>
        <_>
          <internalNodes>
            0 -1 2023 -1 -1879048193 -513 -1025 -1979715332 12302591
            100602108 100659711</internalNodes>
          <leafValues>
            -5.8476620912551880e-01 3.6586180329322815e-01</leafValues></_>
        <_>
          <internalNodes>
            0 -1 2217 -1 -193 -83886081 847248255 -84149505 -83887617
            -84149505 842202047</internalNodes>
          <leafValues>
            -4.9448418617248535e-01 4.1310653090476990e-01</leafValues></_>
        <_>
          <internalNodes>
            0 -1 187 -262145 993165311 -2097157 858980351 2138267519
            1395871039 2004320127 1937244159</internalNodes>
          <leafValues>
            -4.8567345738410950e-01 3.9994883537292480e-01</leafValues></_>
        <_>
          <internalNodes>
            0 -1 522 2147450879 -47105 2143239163 993141434 1778326511
            2138522233 1004503039 997397107</internalNodes>
          <leafValues>
            -3.8198125362396240e-01 3.4567400813102722e-01</leafValues></_>
        <_>
          <internalNodes>
            0 -1 49 -1342439425 -2125 -2097177 -134254093 42935007
            725320383 92230647 97452209</internalNodes>
          <leafValues>
            -4.6164882183074951e-01 1.9588366150856018e-01</leafValues></_>
        <_>
          <internalNodes>
            0 -1 2479 -137 1400885591 1325387455 1080292679 -202401929
            2013262483 -218105861 1114894903</internalNodes>
          <leafValues>
            -2.6684480905532837e-01 3.6724370718002319e-01</leafValues></_>
        <_>
          <internalNodes>
            0 -1 2538 -1073872901 -1346896917 -16779265 -6699 1065334767
            268173227 369053951 99569915</internalNodes>
          <leafValues>
            -3.0175405740737915e-01 2.9121810197830200e-01</leafValues></_>
        <_>
          <internalNodes>
            0 -1 1981 -57807 457142535 -83896353 859012927 -335807553
            -1078224069 -33563137 975897867</internalNodes>
          <leafValues>
            -2.6074162125587463e-01 2.5848016142845154e-01</leafValues></_>
        <_>
          <internalNodes>
            0 -1 221 -134519937 2021163007 -1361313794 1651769319
            -8815003 1110658421 -156501385 1920204791</internalNodes>
          <leafValues>
            -2.6881340146064758e-01 2.4464185535907745e-01</leafValues></_>
        <_>
          <internalNodes>
            0 -1 2799 -1 -6292481 -723001361 2054446835 -143720613
            -33718277 -209731589 -1305411593</internalNodes>
          <leafValues>
            -1.9662047922611237e-01 3.0162566900253296e-01</leafValues></_>
        <_>
          <internalNodes>
            0 -1 2023 -1711286796 1890270829 -1918909700 32767650
            2013073331 -1921226963 -588518029 -636413196</internalNodes>
          <leafValues>
            -1.8069292604923248e-01 2.9105967283248901e-01</leafValues></_>
        <_>
          <internalNodes>
            0 -1 483 -268439553 -352388229 -74224334 1920122730
            -2024276129 1617387383 1193538935 1196943351</internalNodes>
          <leafValues>
            -2.5682610273361206e-01 2.0664986968040466e-01</leafValues></_>
        <_>
          <internalNodes>
            0 -1 10 -8390767 -5440740 -541860952 -68630020 918519539
            607584125 133922296 158663270</internalNodes>
          <leafValues>
            -2.5553423166275024e-01 2.0045220851898193e-01</leafValues></_>
        <_>
          <internalNodes>
            0 -1 1772 -1845776897 -4325377 -99073 -1078083715 -339951619
            -311876 -1361297729 -2009593667</internalNodes>
          <leafValues>
            -1.9271109998226166e-01 2.4420034885406494e-01</leafValues></_>
        <_>
          <internalNodes>
            0 -1 2495 -4210825 22002467 -2013622291 1080289871 503133541
            94090615 1577014700 1345715823</internalNodes>
          <leafValues>
            -2.5310629606246948e-01 1.8380579352378845e-01</leafValues></_>
        <_>
          <internalNodes>
            0 -1 2217 2130688191 139606003 935263482 -38662465 503107533
            360611506 -1782946402 -913503150</internalNodes>
          <leafValues>
            -1.6464650630950928e-01 2.8763082623481750e-01</leafValues></_>
        <_>
          <internalNodes>
            0 -1 1493 78804469 1035335679 -1118929953 -1344749836
            1549999997 -1350668417 2112698540 -1468922766</internalNodes>
          <leafValues>
            -2.2427205741405487e-01 1.8854531645774841e-01</leafValues></_>
        <_>
          <internalNodes>
            0 -1 1163 -337644870 -797827022 -637587208 1920039323
            -931954008 -1066203102 -1059129093 -536899857</internalNodes>
          <leafValues>
            -1.7812249064445496e-01 2.3466394841670990e-01</leafValues></_>
        <_>
          <internalNodes>
            0 -1 187 1886851071 -453267877 -1355143630 -824498542
            -1510101863 -1400989769 -1199729482 -1917314189</internalNodes>
          <leafValues>
            -1.4965783059597015e-01 2.7749145030975342e-01</leafValues></_>
        <_>
          <internalNodes>
            0 -1 104 -1098940809 -1212230669 -1252265989 -604148478
            2079528723 -1640038510 2130117685 -164143295</internalNodes>
          <leafValues>
            -2.1950821578502655e-01 1.8313774466514587e-01</leafValues></_>
        <_>
          <internalNodes>
            0 -1 576 -1561680215 -352444957 -1749096504 -276861382
            1143971583 -344605793 368539573 -470841882</internalNodes>
          <leafValues>
            -1.9645012915134430e-01 1.8164664506912231e-01</leafValues></_>
        <_>
          <internalNodes>
            0 -1 2912 -1350837763 16691183 -117506724 208141047
            -88085641 -17872433 -441189445 -1527840825</internalNodes>
          <leafValues>
            -1.9280809164047241e-01 1.8712586164474487e-01</leafValues></_>
        <_>
          <internalNodes>
            0 -1 1830 -263662400 -369144 925514877 2133994541
            -1900880435 -1922450183 532319728 -1145961288</internalNodes>
          <leafValues>
            -2.1142269670963287e-01 1.7778505384922028e-01</leafValues></_>
        <_>
          <internalNodes>
            0 -1 2387 -1830878955 1391415553 -335544321 1450135551
            -293624579 41852337 1089386846 1379072639</internalNodes>
          <leafValues>
            -2.3198780417442322e-01 1.5476843714714050e-01</leafValues></_>
        <_>
          <internalNodes>
            0 -1 7 1050148783 -839916593 -17384193 1325372415 394129255
            267121139 1342133809 352257221</internalNodes>
          <leafValues>
            -2.1004815399646759e-01 1.7406973242759705e-01</leafValues></_>
        <_>
          <internalNodes>
            0 -1 35 1072430079 603414825 -486657165 -2122845281
            1847795946 1152807522 1986946175 4325378</internalNodes>
          <leafValues>
            -2.6996508240699768e-01 1.4205268025398254e-01</leafValues></_>
        <_>
          <internalNodes>
            0 -1 733 -445936950 -495795206 -1628229032 36759152
            -380388088 1111775842 -781358964 1448139900</internalNodes>
          <leafValues>
            -2.9193940758705139e-01 1.2850674986839294e-01</leafValues></_>
        <_>
          <internalNodes>
            0 -1 277 -13411567 2146958975 -163768481 -134169 -10142593
            2138790719 -1073795841 -21004353</internalNodes>
          <leafValues>
            -1.2531186640262604e-01 2.5650221109390259e-01</leafValues></_>
        <_>
          <internalNodes>
            0 -1 2633 -81962707 595570303 -227546164 1622654303
            -671416523 95411313 1241413585 -260319233</internalNodes>
          <leafValues>
            -1.6754269599914551e-01 1.9921885430812836e-01</leafValues></_>
        <_>
          <internalNodes>
            0 -1 1078 559955965 -88822491 -430330119 -1078892931
            -294003523 -1246187587 1458928081 143917056</internalNodes>
          <leafValues>
            -2.1242991089820862e-01 1.4459252357482910e-01</leafValues></_>
        <_>
          <internalNodes>
            0 -1 1655 48629522 -579007499 1860098046 -4855844
            -1212302341 -868353 -1409398786 453641357</internalNodes>
          <leafValues>
            -2.2845622897148132e-01 1.3349446654319763e-01</leafValues></_>
        <_>
          <internalNodes>
            0 -1 1991 -4228869 280164529 -1342194267 1546238750
            1827667199 318496602 528449623 1368359290</internalNodes>
          <leafValues>
            -1.5475761890411377e-01 1.8810459971427917e-01</leafValues></_>
        <_>
          <internalNodes>
            0 -1 2945 211397519 75767866 -1816193025 786373471
            -1895889378 -805568515 -554865164 -1384214763</internalNodes>
          <leafValues>
            -2.0396007597446442e-01 1.4330568909645081e-01</leafValues></_>
        <_>
          <internalNodes>
            0 -1 243 -554332938 -76849281 1719402471 1769007611
            -85390244 1785949279 -1560955154 -260903826</internalNodes>
          <leafValues>
            -1.6075070202350616e-01 1.7941489815711975e-01</leafValues></_>
        <_>
          <internalNodes>
            0 -1 1609 2002712050 761816748 1005419000 1060254298
            -206062358 -1985348701 167444676 3635770</internalNodes>
          <leafValues>
            -2.2569209337234497e-01 1.2533295154571533e-01</leafValues></_>
        <_>
          <internalNodes>
            0 -1 2059 406128127 2075012949 -1888544769 -541771266
            519950335 -1149407283 -1347459857 -1343606920</internalNodes>
          <leafValues>
            -1.0070697218179703e-01 2.8252723813056946e-01</leafValues></_>
        <_>
          <internalNodes>
            0 -1 979 -1508857035 -1461197966 1177812466 1727018502
            254932911 574074655 1165432007 -1050999597</internalNodes>
          <leafValues>
            -2.0153683423995972e-01 1.3981632888317108e-01</leafValues></_>
        <_>
          <internalNodes>
            0 -1 2159 -1157878179 -75710673 2145349373 977222525
            -1531318657 -69752020 -1468162379 -1438965997</internalNodes>
          <leafValues>
            -1.4798320829868317e-01 1.8955896794795990e-01</leafValues></_>
        <_>
          <internalNodes>
            0 -1 939 -37756929 -1812213327 -75792385 1470705901
            2025204435 1048185531 613781243 -951320405</internalNodes>
          <leafValues>
            -1.0090843588113785e-01 2.8047272562980652e-01</leafValues></_>
        <_>
          <internalNodes>
            0 -1 2269 -35999488 1408738827 -34671403 1125121764
            -813894123 87480595 434614320 -751065907</internalNodes>
          <leafValues>
            -1.7843258380889893e-01 1.5944516658782959e-01</leafValues></_>
        <_>
          <internalNodes>
            0 -1 2213 2104786431 -1073874309 -553648417 -1296255633
            -134480260 -211990945 -15778641 -1439953621</internalNodes>
          <leafValues>
            -1.5157538652420044e-01 1.9709143042564392e-01</leafValues></_></weakClassifiers></_>
    <!-- stage 2 -->
    <_>
      <maxWeakCount>62</maxWeakCount>
      <stageThreshold>-1.9810779094696045e+00</stageThreshold>
      <weakClassifiers>
        <_>
          <internalNodes>
            0 -1 439 -1 -1 -1 -1 -32769 -135266337 -32897 -32905</internalNodes>
          <leafValues>
            -5.8931016921997070e-01 2.6355034112930298e-01</leafValues></_>
        <_>
          <internalNodes>
            0 -1 1416 -67384 -294912 -1025 -20037 -85268294 -71587702
            -268440337 -4216662</internalNodes>
          <leafValues>
            -4.4501525163650513e-01 3.4051001071929932e-01</leafValues></_>
        <_>
          <internalNodes>
            0 -1 1957 -1 -65 -1 -83886081 -50331905 -16777217 -16844033
            -1195835393</internalNodes>
          <leafValues>
            -3.4389945864677429e-01 4.5810505747795105e-01</leafValues></_>
        <_>
          <internalNodes>
            0 -1 2039 -1073741825 800849855 -1 -1 -1077952513 263978943
            234819836 234880511</internalNodes>
          <leafValues>
            -4.1146847605705261e-01 3.0115550756454468e-01</leafValues></_>
        <_>
          <internalNodes>
            0 -1 20 -268435465 -8653837 -13 -3597 201322487 -1342444553
            1207654387 1205289457</internalNodes>
          <leafValues>
            -3.7388351559638977e-01 2.6342049241065979e-01</leafValues></_>
        <_>
          <internalNodes>
            0 -1 893 -32769 2130345855 -1 976361402 -570811393
            2147450747 -537133057 993673211</internalNodes>
          <leafValues>
            -3.8467940688133240e-01 1.8540124595165253e-01</leafValues></_>
        <_>
          <internalNodes>
            0 -1 2830 -285212801 14151543 -50335745 -1593901074
            -805308553 1173878615 -16787993 -452984833</internalNodes>
          <leafValues>
            -2.4993699789047241e-01 2.9149311780929565e-01</leafValues></_>
        <_>
          <internalNodes>
            0 -1 2348 -203 -8388741 -671612993 -167772161 -134217867
            1166016383 -167774416 -134217745</internalNodes>
          <leafValues>
            -1.8764890730381012e-01 3.3945995569229126e-01</leafValues></_>
        <_>
          <internalNodes>
            0 -1 184 -84410561 586940415 -1090519513 -337903809
            1718976343 544702335 -209721600 -234883101</internalNodes>
          <leafValues>
            -2.5292062759399414e-01 2.1759651601314545e-01</leafValues></_>
        <_>
          <internalNodes>
            0 -1 2390 -16827083 2147423543 -49 1932992319 -16862953
            -880838365 -357581698 842149423</internalNodes>
          <leafValues>
            -2.7831169962882996e-01 1.8814541399478912e-01</leafValues></_>
        <_>
          <internalNodes>
            0 -1 2125 -1073799171 -575497 -1074302977 -209956098
            -1077938193 -8586241 -1109672963 -1393555016</internalNodes>
          <leafValues>
            -2.3070587217807770e-01 1.8744818866252899e-01</leafValues></_>
        <_>
          <internalNodes>
            0 -1 439 -16810113 -1342357521 -1118225 -21029259
            -1482769123 -36873 1609539476 661886393</internalNodes>
          <leafValues>
            -1.7016635835170746e-01 2.5151878595352173e-01</leafValues></_>
        <_>
          <internalNodes>
            0 -1 1957 -553943809 1694415966 -16982787 757874300
            -813830692 -840385525 -104989188 1107692576</internalNodes>
          <leafValues>
            -2.4857923388481140e-01 1.6978496313095093e-01</leafValues></_>
        <_>
          <internalNodes>
            0 -1 1256 -1363233529 -287375369 -276860961 -1836229
            -1426899013 -268517409 -1376793089 -1933638468</internalNodes>
          <leafValues>
            -2.1571484208106995e-01 1.8413968384265900e-01</leafValues></_>
        <_>
          <internalNodes>
            0 -1 260 -57481 1975482367 2147483647 -134521417 2000643653
            1165983611 1325365119 -820353</internalNodes>
          <leafValues>
            -1.9367931783199310e-01 2.0139640569686890e-01</leafValues></_>
        <_>
          <internalNodes>
            0 -1 2039 1756603709 -1868419744 268399230 229326003
            1568625077 -1448226568 -151130953 -155253004</internalNodes>
          <leafValues>
            -1.7648953199386597e-01 2.1456143260002136e-01</leafValues></_>
        <_>
          <internalNodes>
            0 -1 1006 -353710558 -354385922 -1302153590 -500028638
            105170564 1078193759 1195623562 -148135957</internalNodes>
          <leafValues>
            -2.3335778713226318e-01 1.6161245107650757e-01</leafValues></_>
        <_>
          <internalNodes>
            0 -1 442 -9454625 292762259 2069773183 287538175 370868443
            547815523 1702565335 273875089</internalNodes>
          <leafValues>
            -2.3740869760513306e-01 1.5927700698375702e-01</leafValues></_>
        <_>
          <internalNodes>
            0 -1 2027 -186327808 -717690128 2028914320 -73338286
            -33556108 -2072023171 83882032 -839192072</internalNodes>
          <leafValues>
            -2.4612343311309814e-01 1.8448087573051453e-01</leafValues></_>
        <_>
          <internalNodes>
            0 -1 2798 -16965633 -293938707 -16777345 -489097222 -2660361
            -184680465 -2114025 -1528262674</internalNodes>
          <leafValues>
            -2.0320023596286774e-01 1.7914925515651703e-01</leafValues></_>
        <_>
          <internalNodes>
            0 -1 2777 -809664971 -1528545347 -151060507 -354484571
            -807436491 -1501691937 -268994731 -151114025</internalNodes>
          <leafValues>
            -1.9899035990238190e-01 1.7738291621208191e-01</leafValues></_>
        <_>
          <internalNodes>
            0 -1 1978 654251391 -1082408977 787955067 -32786 -1073759233
            -50497537 -1342214147 -1346759240</internalNodes>
          <leafValues>
            -1.8346919119358063e-01 1.7096731066703796e-01</leafValues></_>
        <_>
          <internalNodes>
            0 -1 1416 -531953865 -937010757 1688738992 1399881316
            -2122345779 -1024195999 446608120 -548676865</internalNodes>
          <leafValues>
            -1.1391674727201462e-01 2.7603021264076233e-01</leafValues></_>
        <_>
          <internalNodes>
            0 -1 1586 -114654168 -153470818 1840781488 926038392
            -1653425736 2071222263 255462648 -1078327080</internalNodes>
          <leafValues>
            -2.0958641171455383e-01 1.4152523875236511e-01</leafValues></_>
        <_>
          <internalNodes>
            0 -1 12 -8650753 2141905880 -262162 -1075026969 261074863
            254795582 1609521077 231544180</internalNodes>
          <leafValues>
            -2.1328373253345490e-01 1.4156618714332581e-01</leafValues></_>
        <_>
          <internalNodes>
            0 -1 2131 209990965 -1975762951 2142166751 -159469639
            2137794415 -5406721 -346181634 -1079232648</internalNodes>
          <leafValues>
            -1.9795085489749908e-01 1.5337429940700531e-01</leafValues></_>
        <_>
          <internalNodes>
            0 -1 2115 -524549323 -187142457 -1506418788 -51990684
            -825109179 -1493338864 -1644182320 -1465379616</internalNodes>
          <leafValues>
            -1.7912116646766663e-01 1.5397167205810547e-01</leafValues></_>
        <_>
          <internalNodes>
            0 -1 1859 24519549 754690358 -545570817 -67145513 1005331951
            792648143 1039627244 -1073924542</internalNodes>
          <leafValues>
            -1.6744841635227203e-01 1.6333335638046265e-01</leafValues></_>
        <_>
          <internalNodes>
            0 -1 601 -404508832 1657610107 -83951949 -224988506
            1130823671 92176255 2004273137 2004284159</internalNodes>
          <leafValues>
            -1.9569540023803711e-01 1.3875395059585571e-01</leafValues></_>
        <_>
          <internalNodes>
            0 -1 1470 -1502870016 149053157 998396924 547364906
            -2051521003 616103190 -1360754511 -1931597394</internalNodes>
          <leafValues>
            -2.4497754871845245e-01 1.0646854341030121e-01</leafValues></_>
        <_>
          <internalNodes>
            0 -1 1645 -278551 -792919040 1073740287 1363667959
            -1108188437 264734384 442236650 134259362</internalNodes>
          <leafValues>
            -2.1536143124103546e-01 1.2457622587680817e-01</leafValues></_>
        <_>
          <internalNodes>
            0 -1 1802 -1428291584 275202836 -69636 1364066079 -889206768
            -119545700 -302008084 -1962156373</internalNodes>
          <leafValues>
            -1.7830723524093628e-01 1.4882288873195648e-01</leafValues></_>
        <_>
          <internalNodes>
            0 -1 82 -1900024057 772243234 -8326 -1146896606 41363359
            1848737535 1442538263 -179317467</internalNodes>
          <leafValues>
            -2.0392709970474243e-01 1.3584868609905243e-01</leafValues></_>
        <_>
          <internalNodes>
            0 -1 1 -1702985807 -1627717633 -8847384 -52611313 -80971964
            -4194729 -173574320 -289129200</internalNodes>
          <leafValues>
            -2.0976498723030090e-01 1.2235147505998611e-01</leafValues></_>
        <_>
          <internalNodes>
            0 -1 365 -77615649 -8389633 1920088187 -100974849 -680017341
            -683190851 1465341131 -815283202</internalNodes>
          <leafValues>
            -9.0417824685573578e-02 2.6353865861892700e-01</leafValues></_>
        <_>
          <internalNodes>
            0 -1 2943 580649197 141435549 1522401231 1068746351
            -1075904777 -554391299 -1376912165 -1094772284</internalNodes>
          <leafValues>
            -1.9727055728435516e-01 1.2642484903335571e-01</leafValues></_>
        <_>
          <internalNodes>
            0 -1 2187 -67308252 -852537590 -1778396160 -249907805
            -530633 1144502271 2013262322 -784602181</internalNodes>
          <leafValues>
            -1.5141408145427704e-01 1.5828861296176910e-01</leafValues></_>
        <_>
          <internalNodes>
            0 -1 2110 -2011165404 -2008764507 -1395143504 -1867473642
            -193182348 -1101630727 -958959424 -1595925296</internalNodes>
          <leafValues>
            -2.3832055926322937e-01 1.0064379870891571e-01</leafValues></_>
        <_>
          <internalNodes>
            0 -1 2665 -990982162 350056233 -286398738 845462839
            -2032351092 -729505185 -622930340 808475719</internalNodes>
          <leafValues>
            -2.6510339975357056e-01 8.8063627481460571e-02</leafValues></_>
        <_>
          <internalNodes>
            0 -1 1354 -856656058 440547058 -125993007 976358272
            -480584500 1064337208 -1233524548 -1105183592</internalNodes>
          <leafValues>
            -2.0190928876399994e-01 1.1313587427139282e-01</leafValues></_>
        <_>
          <internalNodes>
            0 -1 298 -1342210049 1096249754 417299435 501972991
            2027184774 112306922 527716975 1179728</internalNodes>
          <leafValues>
            -2.2584544122219086e-01 1.0221808403730392e-01</leafValues></_>
        <_>
          <internalNodes>
            0 -1 947 -1440077086 -1703253470 -615125021 1613905602
            1080355522 -281996800 -700070415 -640974719</internalNodes>
          <leafValues>
            -1.9446665048599243e-01 1.3478356599807739e-01</leafValues></_>
        <_>
          <internalNodes>
            0 -1 1350 -433798140 -299211339 -822840358 -1396506998
            -174625003 1984318633 -269158720 -1423269558</internalNodes>
          <leafValues>
            -1.7203873395919800e-01 1.3264794647693634e-01</leafValues></_>
        <_>
          <internalNodes>
            0 -1 2698 765833401 -1934967517 -17317917 -1884643678
            234788337 76010934 1476347376 1421737205</internalNodes>
          <leafValues>
            -2.4391126632690430e-01 9.3439802527427673e-02</leafValues></_>
        <_>
          <internalNodes>
            0 -1 1833 -1342174208 -1366016536 564663270 583153434
            -1592738908 891623296 -1712140294 -1467599832</internalNodes>
          <leafValues>
            -2.0642453432083130e-01 1.1171572655439377e-01</leafValues></_>
        <_>
          <internalNodes>
            0 -1 263 -285383377 461111007 788198139 871545584 -50504383
            -144610017 -125978599 925970267</internalNodes>
          <leafValues>
            -2.2097745537757874e-01 1.0715433955192566e-01</leafValues></_>
        <_>
          <internalNodes>
            0 -1 2196 -1806685180 -750748200 -1150257998 2005416722
            729128188 771555186 10557048 1069028528</internalNodes>
          <leafValues>
            -2.5453013181686401e-01 8.7436556816101074e-02</leafValues></_>
        <_>
          <internalNodes>
            0 -1 2024 880542212 -358040088 -1396789926 -1245437166
            -1376439004 268424699 -1765998140 -1394735480</internalNodes>
          <leafValues>
            -1.9308616220951080e-01 1.1088247597217560e-01</leafValues></_>
        <_>
          <internalNodes>
            0 -1 1650 674564721 1031092708 -268718083 -1623955474
            -1376665675 -38224139 578563964 41943040</internalNodes>
          <leafValues>
            -3.0988886952400208e-01 6.6836357116699219e-02</leafValues></_>
        <_>
          <internalNodes>
            0 -1 2088 -318773370 1416617287 -857802090 1355477711
            -1109410287 1155001879 -153845759 -744050726</internalNodes>
          <leafValues>
            -1.4850144088268280e-01 1.4121793210506439e-01</leafValues></_>
        <_>
          <internalNodes>
            0 -1 2409 -2105471184 1692952353 -420355105 -1085262317
            -1397353097 -1644992551 -713358708 -1294064112</internalNodes>
          <leafValues>
            -1.7249482870101929e-01 1.2329731136560440e-01</leafValues></_>
        <_>
          <internalNodes>
            0 -1 2905 -1769206211 586087522 -187722747 -1462474676
            -1355841673 888573949 -537069580 -1536678668</internalNodes>
          <leafValues>
            -2.0494242012500763e-01 9.9843360483646393e-02</leafValues></_>
        <_>
          <internalNodes>
            0 -1 1451 -8929609 -1072078157 -1662286339 290976691
            -176164753 -2139686814 -1174424065 -1635778581</internalNodes>
          <leafValues>
            -8.8187560439109802e-02 2.3948153853416443e-01</leafValues></_>
        <_>
          <internalNodes>
            0 -1 634 -650318591 -523710583 2142322558 -862831395
            -1225484395 2139613183 -340645968 -5299586</internalNodes>
          <leafValues>
            -1.1495284736156464e-01 1.7549133300781250e-01</leafValues></_>
        <_>
          <internalNodes>
            0 -1 2065 -193195183 -29481115 1819959039 246722109
            -571452212 -1126227077 -643541668 704643861</internalNodes>
          <leafValues>
            -2.7644830942153931e-01 7.4847653508186340e-02</leafValues></_>
        <_>
          <internalNodes>
            0 -1 2195 -528471456 -901198330 -1641544028 -718263416
            -756970795 521125421 -1363368732 -1338872784</internalNodes>
          <leafValues>
            -1.8293689191341400e-01 1.1045539379119873e-01</leafValues></_>
        <_>
          <internalNodes>
            0 -1 1036 -1397480111 -487129645 -1887507981 -1573098010
            -413306955 895413879 -1145784847 -1359018823</internalNodes>
          <leafValues>
            -1.3988944888114929e-01 1.4375142753124237e-01</leafValues></_>
        <_>
          <internalNodes>
            0 -1 189 -512028838 595270362 -1426440590 695957755
            1616904534 1913726826 1182205398 1380121587</internalNodes>
          <leafValues>
            -2.3313573002815247e-01 8.9646272361278534e-02</leafValues></_>
        <_>
          <internalNodes>
            0 -1 92 2096817983 750574363 -1196114 -336078988 2910231
            571912099 1993569153 1173833157</internalNodes>
          <leafValues>
            -1.7199572920799255e-01 1.1579734086990356e-01</leafValues></_>
        <_>
          <internalNodes>
            0 -1 1755 -1263522000 2128652260 -1153647284 -1696322488
            -730433725 -1674826252 -1350525761 -1640224008</internalNodes>
          <leafValues>
            -1.7441438138484955e-01 1.1712189763784409e-01</leafValues></_>
        <_>
          <internalNodes>
            0 -1 2338 -525055740 -449128818 87344610 -101426202
            1762404868 -143147480 -2009322045 -1279393136</internalNodes>
          <leafValues>
            -1.5539915859699249e-01 1.2977440655231476e-01</leafValues></_>
        <_>
          <internalNodes>
            0 -1 2654 -1376135419 -1967196211 -1075921438 -546062346
            350058356 -1917390853 -172576092 -412936876</internalNodes>
          <leafValues>
            -1.4334061741828918e-01 1.3787768781185150e-01</leafValues></_></weakClassifiers></_>
    <!-- stage 3 -->
    <_>
      <maxWeakCount>86</maxWeakCount>
      <stageThreshold>-1.9060602188110352e+00</stageThreshold>
      <weakClassifiers>
        <_>
          <internalNodes>
            0 -1 547 -1 -262153 -1 -131075 -1 -20481 -1 -2800139</internalNodes>
          <leafValues>
            -5.6165897846221924e-01 2.4107378721237183e-01</leafValues></_>
        <_>
          <internalNodes>
            0 -1 529 1610612735 1073217501 2080371711 1073738751
            1610579967 2146435067 2130672383 1006598143</internalNodes>
          <leafValues>
            -4.3026924133300781e-01 3.2031965255737305e-01</leafValues></_>
        <_>
          <internalNodes>
            0 -1 984 -1302 -203689310 -37748738 -3653 -388243222
            -223772542 -1281 -17</internalNodes>
          <leafValues>
            -3.3522447943687439e-01 3.3375108242034912e-01</leafValues></_>
        <_>
          <internalNodes>
            0 -1 2802 -16777217 -16777353 -54525953 -486604937 -16781313
            -285227281 -16781569 -495779841</internalNodes>
          <leafValues>
            -2.8735026717185974e-01 3.6472654342651367e-01</leafValues></_>
        <_>
          <internalNodes>
            0 -1 139 -1 -83886177 -8393917 -67108865 1953988455
            1681391551 -176195833 -134217865</internalNodes>
          <leafValues>
            -1.8630445003509521e-01 4.4730907678604126e-01</leafValues></_>
        <_>
          <internalNodes>
            0 -1 2358 -1078198339 -1480851525 -33685515 -4718789
            -1107296779 229638015 1442805104 99612145</internalNodes>
          <leafValues>
            -3.7144654989242554e-01 1.8914672732353210e-01</leafValues></_>
        <_>
          <internalNodes>
            0 -1 247 -176129 2080078335 -268439557 858946555 -67417009
            2136432255 -97846785 1936948095</internalNodes>
          <leafValues>
            -3.1866523623466492e-01 2.2021648287773132e-01</leafValues></_>
        <_>
          <internalNodes>
            0 -1 563 -1358954505 -1409289263 -4457481 -72616591 41417727
            -2025865225 92231159 1174394293</internalNodes>
          <leafValues>
            -2.9693415760993958e-01 2.0464511215686798e-01</leafValues></_>
        <_>
          <internalNodes>
            0 -1 2313 -50385025 -51649 -36179969 -1098433 -33659393
            -67305473 -621086465 976891711</internalNodes>
          <leafValues>
            -2.8791072964668274e-01 1.8769113719463348e-01</leafValues></_>
        <_>
          <internalNodes>
            0 -1 1852 234692095 -1074511881 -1073790977 -2614788
            -1073971202 -4195329 -1343046404 -1396168492</internalNodes>
          <leafValues>
            -2.0734810829162598e-01 2.1678999066352844e-01</leafValues></_>
        <_>
          <internalNodes>
            0 -1 547 -646582283 -4931591 -536936463 -135102478
            -816336897 -672283 1869944801 83802714</internalNodes>
          <leafValues>
            -1.7626844346523285e-01 2.2897496819496155e-01</leafValues></_>
        <_>
          <internalNodes>
            0 -1 2684 -16810433 794785655 -295704849 1122496510
            -285293017 1205696311 -84416898 -218104097</internalNodes>
          <leafValues>
            -1.7912653088569641e-01 2.1244840323925018e-01</leafValues></_>
        <_>
          <internalNodes>
            0 -1 1383 1030765557 853392853 -1118723 -1074995203
            233062399 -1077691411 -1220800515 185074973</internalNodes>
          <leafValues>
            -3.0818963050842285e-01 1.1474907398223877e-01</leafValues></_>
        <_>
          <internalNodes>
            0 -1 754 -277282817 -361042433 -83955745 1651697358
            -268567747 930426707 -134230305 2004344607</internalNodes>
          <leafValues>
            -2.0266176760196686e-01 1.6687127947807312e-01</leafValues></_>
        <_>
          <internalNodes>
            0 -1 2928 -1883242497 45790971 -201602065 -1998852097
            -1074921505 203421629 -843096721 -1895836161</internalNodes>
          <leafValues>
            -1.6480371356010437e-01 2.1225672960281372e-01</leafValues></_>
        <_>
          <internalNodes>
            0 -1 5 -4456449 -136315139 -404226369 -2561 -1048577
            -197135361 -1207961641 -2571</internalNodes>
          <leafValues>
            -9.7134381532669067e-02 3.1284505128860474e-01</leafValues></_>
        <_>
          <internalNodes>
            0 -1 2155 -50352891 -142655227 -656999937 1937755999
            -1111508995 -1782647947 -802228867 841163295</internalNodes>
          <leafValues>
            -1.9187057018280029e-01 1.5973372757434845e-01</leafValues></_>
        <_>
          <internalNodes>
            0 -1 587 1858505615 -274206870 -119215113 -345835662
            1112764591 108421987 1361410023 1150972658</internalNodes>
          <leafValues>
            -2.5568333268165588e-01 1.0432179272174835e-01</leafValues></_>
        <_>
          <internalNodes>
            0 -1 2663 2145091583 -641 -537009153 -1094830151 -165393
            -25173 -1073766401 -1163248722</internalNodes>
          <leafValues>
            -1.2176591157913208e-01 2.2686606645584106e-01</leafValues></_>
        <_>
          <internalNodes>
            0 -1 1098 -541861417 -549480263 1063202783 2115648827
            -112227723 -671630606 2105215197 -838860800</internalNodes>
          <leafValues>
            -1.1465067416429520e-01 2.3659892380237579e-01</leafValues></_>
        <_>
          <internalNodes>
            0 -1 1598 -269328385 1941059381 -547504391 437787224
            -1879639041 -53116929 -51578626 976239084</internalNodes>
          <leafValues>
            -2.2280004620552063e-01 1.3268220424652100e-01</leafValues></_>
        <_>
          <internalNodes>
            0 -1 2592 -3670731 1173079919 -540088529 1088237487
            968876295 99594023 364868917 1463024559</internalNodes>
          <leafValues>
            -1.9537299871444702e-01 1.3042213022708893e-01</leafValues></_>
        <_>
          <internalNodes>
            0 -1 99 426973691 186853752 -1414387873 246288247 846201442
            976426274 272958583 1315377990</internalNodes>
          <leafValues>
            -2.3920996487140656e-01 1.0572744160890579e-01</leafValues></_>
        <_>
          <internalNodes>
            0 -1 529 -1273078441 -485939436 -1107345672 -1046069510
            -721512105 -2128255215 -1417698445 -998920591</internalNodes>
          <leafValues>
            -1.3333566486835480e-01 2.0574368536472321e-01</leafValues></_>
        <_>
          <internalNodes>
            0 -1 260 -33587361 1408726463 -537425297 1698395607 -4229537
            794773367 -152110081 -1091503105</internalNodes>
          <leafValues>
            -1.2589132785797119e-01 2.1212932467460632e-01</leafValues></_>
        <_>
          <internalNodes>
            0 -1 1921 -1672678283 -110993444 456350176 1530409246
            770627384 -1130401493 498209204 1068110328</internalNodes>
          <leafValues>
            -2.1930904686450958e-01 1.1817111819982529e-01</leafValues></_>
        <_>
          <internalNodes>
            0 -1 1765 962869247 872345583 930594427 -1108226121
            1835876349 -4210689 -621822037 -1107542264</internalNodes>
          <leafValues>
            -9.4789505004882813e-02 2.5878635048866272e-01</leafValues></_>
        <_>
          <internalNodes>
            0 -1 618 -428749363 1616817389 -390139970 -1570849351
            -681050249 1115127606 1911682821 1979707359</internalNodes>
          <leafValues>
            -2.3495522141456604e-01 1.0571189969778061e-01</leafValues></_>
        <_>
          <internalNodes>
            0 -1 1388 1488045265 412617023 -1140859907 159251839
            -453217091 -1176719959 -54649093 681589557</internalNodes>
          <leafValues>
            -1.7592003941535950e-01 1.3321684300899506e-01</leafValues></_>
        <_>
          <internalNodes>
            0 -1 2802 1810795534 95315118 -1364275478 1032447662
            1877218510 1568303092 -805373506 497938018</internalNodes>
          <leafValues>
            -1.3071672618389130e-01 1.7780438065528870e-01</leafValues></_>
        <_>
          <internalNodes>
            0 -1 984 -662133355 -872404655 1157279745 392338574
            -1305829867 -2125174935 3837322 -1890640289</internalNodes>
          <leafValues>
            -1.1308470368385315e-01 2.0244733989238739e-01</leafValues></_>
        <_>
          <internalNodes>
            0 -1 139 1727738627 723709938 -281202770 -1931764221
            -469788744 -1259112585 1741131104 1077229512</internalNodes>
          <leafValues>
            -1.7603494226932526e-01 1.2524208426475525e-01</leafValues></_>
        <_>
          <internalNodes>
            0 -1 1926 -1082403472 -1090454520 466365849 2144472891
            -1078198787 -1543766027 497748091 527957503</internalNodes>
          <leafValues>
            -1.4636655151844025e-01 1.4817026257514954e-01</leafValues></_>
        <_>
          <internalNodes>
            0 -1 2407 -35686603 1467817798 1465301789 1918238711
            2013216613 1467367189 -27424654 335490895</internalNodes>
          <leafValues>
            -1.8287034332752228e-01 1.2440625578165054e-01</leafValues></_>
        <_>
          <internalNodes>
            0 -1 2849 -1346380561 -1510474329 -1075394567 -1478513883
            494655995 664530907 536745525 103219701</internalNodes>
          <leafValues>
            -1.6507424414157867e-01 1.3872046768665314e-01</leafValues></_>
        <_>
          <internalNodes>
            0 -1 1537 741617191 1022734207 1038052863 -2093895827
            1811398655 -1376210946 -1082904363 -1901851084</internalNodes>
          <leafValues>
            -1.6481211781501770e-01 1.2859663367271423e-01</leafValues></_>
        <_>
          <internalNodes>
            0 -1 2826 -69865489 3140975 -26805554 -423106426 1727250051
            88032959 2012073352 -463081753</internalNodes>
          <leafValues>
            -1.2802319228649139e-01 1.5651793777942657e-01</leafValues></_>
        <_>
          <internalNodes>
            0 -1 40 -1170212873 -1079775401 -1577010 -1311001319
            -1630182593 -21545097 532442916 -851487371</internalNodes>
          <leafValues>
            -1.3884215056896210e-01 1.4116452634334564e-01</leafValues></_>
        <_>
          <internalNodes>
            0 -1 1317 -1943875462 -619118428 1968844896 1650001631
            -1072508262 -248399214 397577423 -548427105</internalNodes>
          <leafValues>
            -1.4604137837886810e-01 1.4352548122406006e-01</leafValues></_>
        <_>
          <internalNodes>
            0 -1 1939 1005084669 -1124237355 -544346871 2133884838
            -1083844135 -145981644 179048445 773983288</internalNodes>
          <leafValues>
            -1.7016890645027161e-01 1.1097113043069839e-01</leafValues></_>
        <_>
          <internalNodes>
            0 -1 813 1969166591 -1736756621 802901367 1487535083
            1283655391 12554811 248131423 5028182</internalNodes>
          <leafValues>
            -1.5023437142372131e-01 1.3183289766311646e-01</leafValues></_>
        <_>
          <internalNodes>
            0 -1 1788 210766612 1718882165 -9045506 2065596215
            -1352753169 -70278977 794103611 187171261</internalNodes>
          <leafValues>
            -2.4908393621444702e-01 8.2260288298130035e-02</leafValues></_>
        <_>
          <internalNodes>
            0 -1 2902 -21508129 -1564738901 -69470730 -50856013
            -1921561089 -373823617 -10756225 -30212105</internalNodes>
          <leafValues>
            -9.7299881279468536e-02 2.0564904808998108e-01</leafValues></_>
        <_>
          <internalNodes>
            0 -1 2401 1004732208 401855783 -1088532812 1164303970
            262828533 369064405 359007576 1882343184</internalNodes>
          <leafValues>
            -2.0468626916408539e-01 9.4835273921489716e-02</leafValues></_>
        <_>
          <internalNodes>
            0 -1 141 -70062945 -1698955329 -285299690 -147092549
            1482901183 1920623997 1920830479 -1033509306</internalNodes>
          <leafValues>
            -1.0646038502454758e-01 1.7042087018489838e-01</leafValues></_>
        <_>
          <internalNodes>
            0 -1 2056 220501489 -1115160584 -739377231 -13104447
            -134994435 -311083747 -1951434388 -612088734</internalNodes>
          <leafValues>
            -9.9476747214794159e-02 1.7866298556327820e-01</leafValues></_>
        <_>
          <internalNodes>
            0 -1 1080 565497781 -1634698017 -1812886077 775941893
            628165113 -1527703373 -555975113 209781509</internalNodes>
          <leafValues>
            -1.6913060843944550e-01 1.0565990209579468e-01</leafValues></_>
        <_>
          <internalNodes>
            0 -1 1045 -663459563 2670572 -1531514954 684776959
            -1839125420 668303184 -37225882 -2133039574</internalNodes>
          <leafValues>
            -1.8371357023715973e-01 9.3112766742706299e-02</leafValues></_>
        <_>
          <internalNodes>
            0 -1 21 2138802682 264971524 -103039379 32629282 1663183562
            987934521 1449651293 7438720</internalNodes>
          <leafValues>
            -1.7163349688053131e-01 9.9861301481723785e-02</leafValues></_>
        <_>
          <internalNodes>
            0 -1 1113 46673173 178842929 1604581365 -1946960480
            1333751775 -961626825 -973111881 -1903073996</internalNodes>
          <leafValues>
            -1.5142668783664703e-01 1.1690228432416916e-01</leafValues></_>
        <_>
          <internalNodes>
            0 -1 1377 1325165181 -1084326669 -46302209 1521540370
            -692838920 -1628674066 -1380040803 -1430242452</internalNodes>
          <leafValues>
            -1.3080708682537079e-01 1.2509077787399292e-01</leafValues></_>
        <_>
          <internalNodes>
            0 -1 2184 -943919104 161535316 234567858 1496901686
            1039585636 8303985 1564429524 30784976</internalNodes>
          <leafValues>
            -2.4081769585609436e-01 7.0618890225887299e-02</leafValues></_>
        <_>
          <internalNodes>
            0 -1 1641 1555340473 1953759554 -1134788652 180219519
            2029853932 1022898604 -251798960 671624725</internalNodes>
          <leafValues>
            -2.5358512997627258e-01 6.7152351140975952e-02</leafValues></_>
        <_>
          <internalNodes>
            0 -1 4 1903525877 -1414668804 -52003394 -43040821 746041253
            -136857771 -273650335 -1523820288</internalNodes>
          <leafValues>
            -1.3488046824932098e-01 1.2760350108146667e-01</leafValues></_>
        <_>
          <internalNodes>
            0 -1 1573 -546203169 -1015597893 268376187 2139086207
            -451545617 274250035 770157819 -33554497</internalNodes>
          <leafValues>
            -5.4072644561529160e-02 3.0339187383651733e-01</leafValues></_>
        <_>
          <internalNodes>
            0 -1 904 -85269796 -721883405 -1125947446 -1976414088
            -539803090 -781951945 -1242121080 -1233758662</internalNodes>
          <leafValues>
            -1.5547432005405426e-01 1.0407812148332596e-01</leafValues></_>
        <_>
          <internalNodes>
            0 -1 276 1426067237 518487415 1001727759 -50633750 507649813
            -419430633 659898123 -92314249</internalNodes>
          <leafValues>
            -1.4056277275085449e-01 1.1477310210466385e-01</leafValues></_>
        <_>
          <internalNodes>
            0 -1 2313 1283381684 954466023 2130178044 2050915711
            1493026302 -1409417352 2117805306 -184313138</internalNodes>
          <leafValues>
            -8.2144424319267273e-02 1.9491067528724670e-01</leafValues></_>
        <_>
          <internalNodes>
            0 -1 198 -237784429 -2108459239 -1082969486 510915571
            -1787358873 351733574 2130057911 276264229</internalNodes>
          <leafValues>
            -1.8309076130390167e-01 8.7374292314052582e-02</leafValues></_>
        <_>
          <internalNodes>
            0 -1 1683 673317888 -521057216 -494338154 459356163
            -2077730771 -1112893667 93323706 195757070</internalNodes>
          <leafValues>
            -2.3399949073791504e-01 7.4344925582408905e-02</leafValues></_>
        <_>
          <internalNodes>
            0 -1 1771 851219223 2046300853 805125615 -14398017
            -1086513667 -1073939250 -623476741 -1409261502</internalNodes>
          <leafValues>
            -8.9303106069564819e-02 1.8089716136455536e-01</leafValues></_>
        <_>
          <internalNodes>
            0 -1 2321 1966083409 1449657327 -544264 -67356994 1610395056
            1022721855 2138853556 909130528</internalNodes>
          <leafValues>
            -1.8634346127510071e-01 8.5761159658432007e-02</leafValues></_>
        <_>
          <internalNodes>
            0 -1 94 2012997379 -1666523349 -573942 -474289632 67004667
            673775566 57659719 1173223346</internalNodes>
          <leafValues>
            -1.3132822513580322e-01 1.1922159045934677e-01</leafValues></_>
        <_>
          <internalNodes>
            0 -1 2637 -1254818219 -1608197391 -1610750488 1653741559
            477382480 1698016895 -297697774 -2099629765</internalNodes>
          <leafValues>
            -1.5425364673137665e-01 9.8571568727493286e-02</leafValues></_>
        <_>
          <internalNodes>
            0 -1 2448 637335942 -2018578767 2004605281 -1657352755
            129889789 550682351 278724688 205268136</internalNodes>
          <leafValues>
            -1.7646817862987518e-01 8.9840181171894073e-02</leafValues></_>
        <_>
          <internalNodes>
            0 -1 1793 -608522757 -661675631 -441778825 -583243345
            -1750161282 -1664174421 467273366 -651958616</internalNodes>
          <leafValues>
            -7.2443850338459015e-02 2.1068096160888672e-01</leafValues></_>
        <_>
          <internalNodes>
            0 -1 2367 552630149 699034353 1283239867 -139444848
            2143041928 1049468221 -587625016 654576960</internalNodes>
          <leafValues>
            -1.8494769930839539e-01 8.2219652831554413e-02</leafValues></_>
        <_>
          <internalNodes>
            0 -1 2778 -466580843 -1405452433 -1115755033 -299337537
            316383538 1365573500 -157979850 -1010879425</internalNodes>
          <leafValues>
            -1.3640029728412628e-01 1.0838123410940170e-01</leafValues></_>
        <_>
          <internalNodes>
            0 -1 1263 782896720 681769273 -541130949 2033205232
            -1467096136 -1264991 -1916719665 -2119089975</internalNodes>
          <leafValues>
            -1.7930708825588226e-01 8.4012530744075775e-02</leafValues></_>
        <_>
          <internalNodes>
            0 -1 33 2011578239 129464659 -891849729 699478923 -322698654
            1743917603 1986283153 270009600</internalNodes>
          <leafValues>
            -2.0894840359687805e-01 9.0144574642181396e-02</leafValues></_>
        <_>
          <internalNodes>
            0 -1 2251 1879048224 1711793284 1073356798 1437345808
            241085816 -185104778 2130576752 1964001536</internalNodes>
          <leafValues>
            -2.7378684282302856e-01 6.2638275325298309e-02</leafValues></_>
        <_>
          <internalNodes>
            0 -1 2568 1848912913 2038299509 2128538877 842486591
            1625689862 2144910712 -1118929682 854810399</internalNodes>
          <leafValues>
            -1.4051201939582825e-01 1.1277181655168533e-01</leafValues></_>
        <_>
          <internalNodes>
            0 -1 272 1495101661 -1216929795 -1023423473 871627709
            -146010354 -545833161 -462152049 2099609407</internalNodes>
          <leafValues>
            -1.1959571391344070e-01 1.2959617376327515e-01</leafValues></_>
        <_>
          <internalNodes>
            0 -1 912 203685984 556941075 267890366 173162162 -2067462811
            -2139260111 -1191400580 540027508</internalNodes>
          <leafValues>
            -2.8790906071662903e-01 5.1216945052146912e-02</leafValues></_>
        <_>
          <internalNodes>
            0 -1 2700 749417504 262993257 2096543760 -455729662
            257807857 219786423 895358068 1291743294</internalNodes>
          <leafValues>
            -2.2150045633316040e-01 6.4746469259262085e-02</leafValues></_>
        <_>
          <internalNodes>
            0 -1 1842 -304022060 -1393791820 1992440904 491262299
            -679871412 -1902256269 1299923072 72644642</internalNodes>
          <leafValues>
            -1.7991620302200317e-01 7.9307533800601959e-02</leafValues></_>
        <_>
          <internalNodes>
            0 -1 1648 1726865088 474324992 1585053405 336260990
            683551855 1556013741 945699546 134498562</internalNodes>
          <leafValues>
            -2.3749949038028717e-01 6.2375128269195557e-02</leafValues></_>
        <_>
          <internalNodes>
            0 -1 1790 -1977350639 724703584 -1074037519 -1842122433
            -1473813320 1062644554 1216240980 -1727347447</internalNodes>
          <leafValues>
            -1.6242761909961700e-01 9.6328087151050568e-02</leafValues></_>
        <_>
          <internalNodes>
            0 -1 887 -590024339 1476788189 670020537 -975771974
            -847276732 335433597 -1096205278 -1578952034</internalNodes>
          <leafValues>
            -1.1844133585691452e-01 1.2641808390617371e-01</leafValues></_>
        <_>
          <internalNodes>
            0 -1 1075 1056210941 -1366444085 -23315502 -1347049731
            936654316 -16863736 -294552179 134022912</internalNodes>
          <leafValues>
            -1.1709482967853546e-01 1.2815317511558533e-01</leafValues></_>
        <_>
          <internalNodes>
            0 -1 718 -1560761336 1111289579 -1437389898 571791958
            1315352335 72855420 389482193 618127100</internalNodes>
          <leafValues>
            -2.1656382083892822e-01 6.4458750188350677e-02</leafValues></_>
        <_>
          <internalNodes>
            0 -1 1093 461356383 1009646277 766983159 862877280
            1064461491 1844403354 1249712735 169228867</internalNodes>
          <leafValues>
            -1.3960030674934387e-01 1.1455987393856049e-01</leafValues></_>
        <_>
          <internalNodes>
            0 -1 2510 -4489439 -1688032453 962182700 1104185323
            429258357 79541723 1957253152 1411477860</internalNodes>
          <leafValues>
            -1.6209468245506287e-01 9.7971878945827484e-02</leafValues></_>
        <_>
          <internalNodes>
            0 -1 160 552767104 -2135232577 -162022650 -1426391328
            1096157988 5256526 1735767558 1414910864</internalNodes>
          <leafValues>
            -2.5126031041145325e-01 5.6390978395938873e-02</leafValues></_>
        <_>
          <internalNodes>
            0 -1 2067 781719920 1575763698 -1474484813 1597193981
            -1090703708 1975888885 -1351267329 928792221</internalNodes>
          <leafValues>
            -1.0619865357875824e-01 1.3447161018848419e-01</leafValues></_>
        <_>
          <internalNodes>
            0 -1 2946 145262703 256205951 -1090544786 62735350
            2145862974 2133782525 889169123 -1364899335</internalNodes>
          <leafValues>
            -1.3743844628334045e-01 1.0101980715990067e-01</leafValues></_></weakClassifiers></_>
    <!-- stage 4 -->
    <_>
      <maxWeakCount>35</maxWeakCount>
      <stageThreshold>-2.1772193908691406e+00</stageThreshold>
      <weakClassifiers>
        <_>
          <internalNodes>
            0 -1 2185 -805257088 -784334848 0 -780075008 -2147450744 0
            -2147450742 855834762</internalNodes>
          <leafValues>
            -5.8958804607391357e-01 3.6495149135589600e-01</leafValues></_>
        <_>
          <internalNodes>
            0 -1 0 -1073708928 -796917760 0 1367408640 -2147450752 0
            8330 50528266</internalNodes>
          <leafValues>
            -3.8007363677024841e-01 4.6599894762039185e-01</leafValues></_>
        <_>
          <internalNodes>
            0 -1 1829 -1073708928 1342177280 0 285212672 -2147450744 0
            -2147450742 25886858</internalNodes>
          <leafValues>
            -3.4289079904556274e-01 4.2839965224266052e-01</leafValues></_>
        <_>
          <internalNodes>
            0 -1 2480 -1 499110399 795588543 95155631 2141968895
            360665258 2076170751 98566143</internalNodes>
          <leafValues>
            -4.1040116548538208e-01 3.4523081779479980e-01</leafValues></_>
        <_>
          <internalNodes>
            0 -1 1815 -1073708928 268435488 0 299958792 -2147450744
            524320 542212234 866844811</internalNodes>
          <leafValues>
            -3.0488747358322144e-01 4.1286170482635498e-01</leafValues></_>
        <_>
          <internalNodes>
            0 -1 161 -67379233 2064899583 -413401521 2132014079
            1936920399 1381059935 1935105867 1937243007</internalNodes>
          <leafValues>
            -3.4541457891464233e-01 3.4563264250755310e-01</leafValues></_>
        <_>
          <internalNodes>
            0 -1 1841 -805257088 -805305276 -260046800 -784332784
            -1543466872 8396800 -2139062134 -2130509686</internalNodes>
          <leafValues>
            -2.3236118257045746e-01 4.3224033713340759e-01</leafValues></_>
        <_>
          <internalNodes>
            0 -1 28 -257 -921613 1608514559 -536931597 -269766673
            -1078263641 1335843839 252117335</internalNodes>
          <leafValues>
            -3.3300977945327759e-01 2.8076943755149841e-01</leafValues></_>
        <_>
          <internalNodes>
            0 -1 2521 -805273472 -796225536 274792448 -754744320
            -2147442560 9216 1049736 -1280637942</internalNodes>
          <leafValues>
            -1.9788302481174469e-01 4.0728962421417236e-01</leafValues></_>
        <_>
          <internalNodes>
            0 -1 1362 -679479297 1061141533 1070971134 534755057
            -67371585 -1413743684 213850366 188707067</internalNodes>
          <leafValues>
            -2.8739476203918457e-01 2.7028518915176392e-01</leafValues></_>
        <_>
          <internalNodes>
            0 -1 2112 -805256576 -779042613 10448 -212737914 -1341882232
            8406161 -1332707190 -1752498038</internalNodes>
          <leafValues>
            -1.6495727002620697e-01 4.2900896072387695e-01</leafValues></_>
        <_>
          <internalNodes>
            0 -1 2460 -18882689 1600089111 -632815921 842888271
            -73540898 2129622607 1486813918 34761243</internalNodes>
          <leafValues>
            -3.6765027046203613e-01 1.8261253833770752e-01</leafValues></_>
        <_>
          <internalNodes>
            0 -1 2195 -250289024 -803209214 2130144 -775413556
            -1610055544 -1742666494 -2147188598 -1283260278</internalNodes>
          <leafValues>
            -1.7399531602859497e-01 3.9367076754570007e-01</leafValues></_>
        <_>
          <internalNodes>
            0 -1 1767 -645861148 -616520640 925442088 -238747456
            -1910446712 280036416 -1568349560 -1316544470</internalNodes>
          <leafValues>
            -1.3591192662715912e-01 4.0110564231872559e-01</leafValues></_>
        <_>
          <internalNodes>
            0 -1 111 -402658597 713997099 -11797725 2144044578 106429391
            7437103 125286163 1433925169</internalNodes>
          <leafValues>
            -3.2369932532310486e-01 1.8042726814746857e-01</leafValues></_>
        <_>
          <internalNodes>
            0 -1 218 -679419136 -754630624 270599184 1909836416
            -2096049248 311427072 808525962 -1288736213</internalNodes>
          <leafValues>
            -1.5307426452636719e-01 3.6167266964912415e-01</leafValues></_>
        <_>
          <internalNodes>
            0 -1 0 938039404 58708434 1464008913 -1535480379 2047025178
            -460685184 -341801631 -1126687263</internalNodes>
          <leafValues>
            -3.4963357448577881e-01 1.6819138824939728e-01</leafValues></_>
        <_>
          <internalNodes>
            0 -1 2432 -671031168 -787019080 335609873 1402700007
            -467626620 302810274 42120 -1215627253</internalNodes>
          <leafValues>
            -1.5780860185623169e-01 3.4603413939476013e-01</leafValues></_>
        <_>
          <internalNodes>
            0 -1 642 1480150239 2111451475 -1241941761 1060247674
            1561329786 -109895621 -1370213377 997407531</internalNodes>
          <leafValues>
            -3.0472415685653687e-01 1.8356940150260925e-01</leafValues></_>
        <_>
          <internalNodes>
            0 -1 2172 -167739392 1371542624 1702890032 -1279195900
            407012513 67120241 715167882 -1244724086</internalNodes>
          <leafValues>
            -1.6114740073680878e-01 3.1342518329620361e-01</leafValues></_>
        <_>
          <internalNodes>
            0 -1 2185 603396958 649019625 -1670950434 240939486
            1930651718 -258981883 722042688 -991131099</internalNodes>
          <leafValues>
            -3.9214110374450684e-01 1.3372617959976196e-01</leafValues></_>
        <_>
          <internalNodes>
            0 -1 1727 -524252960 -603298107 -1465629624 -772845154
            -1341620088 9109515 -536629874 -1551152501</internalNodes>
          <leafValues>
            -1.4257858693599701e-01 3.6731666326522827e-01</leafValues></_>
        <_>
          <internalNodes>
            0 -1 438 2046820350 -239601414 -1185826821 296055807
            1639541486 542253186 1400329471 196618</internalNodes>
          <leafValues>
            -3.7046903371810913e-01 1.4148038625717163e-01</leafValues></_>
        <_>
          <internalNodes>
            0 -1 393 -667712512 -790548479 1410336256 -246216116
            538087584 328725 -1822424854 666048059</internalNodes>
          <leafValues>
            -1.6485710442066193e-01 2.9377192258834839e-01</leafValues></_>
        <_>
          <internalNodes>
            0 -1 1829 1020555338 -2049129280 -1006174002 -322092843
            229147298 331854026 940601064 -29308377</internalNodes>
          <leafValues>
            -2.5217434763908386e-01 1.9013778865337372e-01</leafValues></_>
        <_>
          <internalNodes>
            0 -1 1511 1006220217 955594511 -782896513 769898493
            -577984035 -1193465361 -1196413955 134218513</internalNodes>
          <leafValues>
            -3.4685456752777100e-01 1.2443520128726959e-01</leafValues></_>
        <_>
          <internalNodes>
            0 -1 267 -117387168 -28474607 62346011 -685177723 838893972
            273786370 -1308620641 -140308325</internalNodes>
          <leafValues>
            -1.2742635607719421e-01 3.6873969435691833e-01</leafValues></_>
        <_>
          <internalNodes>
            0 -1 1736 -175578272 -687854392 14697612 -774889320
            -1289052000 -2063199872 -1171551604 -1953824230</internalNodes>
          <leafValues>
            -1.2737657129764557e-01 3.1974229216575623e-01</leafValues></_>
        <_>
          <internalNodes>
            0 -1 2526 -1148209729 -1497698423 -644768077 1622967174
            -1680122371 664138175 1842566525 1501256958</internalNodes>
          <leafValues>
            -2.7624583244323730e-01 1.5228945016860962e-01</leafValues></_>
        <_>
          <internalNodes>
            0 -1 1915 -521354040 -724791040 -2008704430 -1316617196
            -1702454844 302122880 -1819620642 -1549860721</internalNodes>
          <leafValues>
            -1.4730174839496613e-01 2.8181532025337219e-01</leafValues></_>
        <_>
          <internalNodes>
            0 -1 1815 923922525 -472283930 1080301789 -1023880579
            170401953 -267534170 -1193464151 -937197194</internalNodes>
          <leafValues>
            -1.8254844844341278e-01 2.1244643628597260e-01</leafValues></_>
        <_>
          <internalNodes>
            0 -1 2824 -569783648 -732782456 1906393376 -779278335
            -566586989 348201109 -1605736005 -1421129569</internalNodes>
          <leafValues>
            -1.0115992277860641e-01 4.0253633260726929e-01</leafValues></_>
        <_>
          <internalNodes>
            0 -1 434 -1423048813 -1618825311 -677515415 831377896
            1262858211 571910707 129975287 1303336433</internalNodes>
          <leafValues>
            -2.5236189365386963e-01 1.5436956286430359e-01</leafValues></_>
        <_>
          <internalNodes>
            0 -1 2276 -775774048 -110590588 1540928 -611679872
            -1266513959 1496383493 -1817415222 -207935350</internalNodes>
          <leafValues>
            -1.1999095976352692e-01 3.2690748572349548e-01</leafValues></_>
        <_>
          <internalNodes>
            0 -1 619 -353212161 2138257883 1360661176 1060780794
            -93304884 877860599 861214968 2138007995</internalNodes>
          <leafValues>
            -2.4110084772109985e-01 1.5104082226753235e-01</leafValues></_></weakClassifiers></_>
    <!-- stage 5 -->
    <_>
      <maxWeakCount>100</maxWeakCount>
      <stageThreshold>-1.9351333379745483e+00</stageThreshold>
      <weakClassifiers>
        <_>
          <internalNodes>
            0 -1 1296 -1832 -640438256 -570950403 -263209 -353656582
            -100958032 -33555201 -1041</internalNodes>
          <leafValues>
            -6.0118675231933594e-01 4.1443880647420883e-02</leafValues></_>
        <_>
          <internalNodes>
            0 -1 426 -134742017 -279041 -35782657 -34209795 -265729
            -38827125 -50528257 4553551</internalNodes>
          <leafValues>
            -4.1378185153007507e-01 1.7174154520034790e-01</leafValues></_>
        <_>
          <internalNodes>
            0 -1 388 -524289 -295937 1037794043 993211387 -18920193
            2134054267 -1099826209 2138275707</internalNodes>
          <leafValues>
            -2.9765865206718445e-01 2.3180694878101349e-01</leafValues></_>
        <_>
          <internalNodes>
            0 -1 2017 -704645899 -1783367447 517941332 1574953939
            536835325 230682815 501170429 234877183</internalNodes>
          <leafValues>
            -2.8318813443183899e-01 2.1986134350299835e-01</leafValues></_>
        <_>
          <internalNodes>
            0 -1 143 -1 1860956747 -10488837 -548446209 1164441599
            5752559 2004056055 2012215295</internalNodes>
          <leafValues>
            -2.6516035199165344e-01 1.9145517051219940e-01</leafValues></_>
        <_>
          <internalNodes>
            0 -1 2467 -137 2002735991 2061499119 309854079 -620772774
            -1067900414 -889783586 577960575</internalNodes>
          <leafValues>
            -3.1805539131164551e-01 1.5479283034801483e-01</leafValues></_>
        <_>
          <internalNodes>
            0 -1 221 -134272001 2069561343 -1561329793 1932722171
            -209764225 1937197943 -159384897 1934884863</internalNodes>
          <leafValues>
            -2.0419128239154816e-01 1.8394820392131805e-01</leafValues></_>
        <_>
          <internalNodes>
            0 -1 1591 -939488640 -702539680 157941880 303040560
            -1944014704 -1526593488 431100080 269484064</internalNodes>
          <leafValues>
            -4.0773257613182068e-01 9.3860417604446411e-02</leafValues></_>
        <_>
          <internalNodes>
            0 -1 2689 -1073760771 60552627 143819757 95401899 398194173
            503280115 1543492863 1442709487</internalNodes>
          <leafValues>
            -2.2373156249523163e-01 1.4406423270702362e-01</leafValues></_>
        <_>
          <internalNodes>
            0 -1 1296 -1610602969 -164869141 708321586 1361327144
            -1791992187 -2111358357 241208256 -888426854</internalNodes>
          <leafValues>
            -1.7448821663856506e-01 1.9468289613723755e-01</leafValues></_>
        <_>
          <internalNodes>
            0 -1 804 -1365594433 -635702352 2001714135 -82619504
            774302719 -1705246803 193703867 92734913</internalNodes>
          <leafValues>
            -2.2279609739780426e-01 1.6259005665779114e-01</leafValues></_>
        <_>
          <internalNodes>
            0 -1 1071 355565567 1035450871 2129539295 1073359096
            1289622847 -1079101956 987310714 -1421146086</internalNodes>
          <leafValues>
            -1.8996267020702362e-01 1.1538652330636978e-01</leafValues></_>
        <_>
          <internalNodes>
            0 -1 2333 -84169 1174390647 -1623273169 1346631215 -264684
            91452771 -605199114 1365768879</internalNodes>
          <leafValues>
            -1.7917113006114960e-01 1.3411255180835724e-01</leafValues></_>
        <_>
          <internalNodes>
            0 -1 1507 -1468126664 -655027041 -254091779 1542528507
            1418780411 -82761 -867692801 185073672</internalNodes>
          <leafValues>
            -2.5200900435447693e-01 8.8932551443576813e-02</leafValues></_>
        <_>
          <internalNodes>
            0 -1 488 -402657537 -1426325605 2119384606 578466538
            1430746671 1615093071 1901586375 1148687103</internalNodes>
          <leafValues>
            -2.0244191586971283e-01 1.0551951825618744e-01</leafValues></_>
        <_>
          <internalNodes>
            0 -1 388 -219002881 863412211 2134110714 -134231434
            1679070289 -152342573 108211826 -2137222409</internalNodes>
          <leafValues>
            -1.2109819799661636e-01 1.8765442073345184e-01</leafValues></_>
        <_>
          <internalNodes>
            0 -1 2215 -847252001 1568608125 2143157247 981430135
            -578860836 2145338911 -206177443 974135093</internalNodes>
          <leafValues>
            -1.6258516907691956e-01 1.2130492925643921e-01</leafValues></_>
        <_>
          <internalNodes>
            0 -1 1837 -800938752 -804726984 -1729321420 -1847588352
            -1395882804 -2065281180 1314248076 -1333067542</internalNodes>
          <leafValues>
            -1.3852819800376892e-01 1.4236140251159668e-01</leafValues></_>
        <_>
          <internalNodes>
            0 -1 2363 -1145765989 -1365217999 1843249405 -181269676
            1069266929 -1112887322 253690037 262082720</internalNodes>
          <leafValues>
            -1.9857643544673920e-01 9.5430485904216766e-02</leafValues></_>
        <_>
          <internalNodes>
            0 -1 2017 -1086775878 1118484411 717170381 278148020
            -51406346 -1172096009 -497697282 -736813096</internalNodes>
          <leafValues>
            -1.0930693149566650e-01 1.7599137127399445e-01</leafValues></_>
        <_>
          <internalNodes>
            0 -1 426 -168296717 829489067 2097086451 -1564543501
            -1258760769 576018370 66532415 -2194251</internalNodes>
          <leafValues>
            -7.9145491123199463e-02 2.3694755136966705e-01</leafValues></_>
        <_>
          <internalNodes>
            0 -1 19 2140667889 2067190131 -12714129 -5177358 1780345296
            -1100566529 1333151603 265639413</internalNodes>
          <leafValues>
            -2.2120593488216400e-01 8.9325830340385437e-02</leafValues></_>
        <_>
          <internalNodes>
            0 -1 2097 -542203392 1359061760 -1926454112 287360010
            -306454016 1094759957 79470608 1365487586</internalNodes>
          <leafValues>
            -2.3856060206890106e-01 8.5939384996891022e-02</leafValues></_>
        <_>
          <internalNodes>
            0 -1 457 -681739553 299874993 1071103997 171228133 544879307
            578171491 638570623 281842717</internalNodes>
          <leafValues>
            -1.6356970369815826e-01 1.2208321690559387e-01</leafValues></_>
        <_>
          <internalNodes>
            0 -1 872 -492401468 -1026659634 -1730863606 -2131588046
            1097967052 1143065398 900818826 124199819</internalNodes>
          <leafValues>
            -2.4797847867012024e-01 8.6847044527530670e-02</leafValues></_>
        <_>
          <internalNodes>
            0 -1 2094 -234715616 1420045616 -1896698044 -1846538718
            872777136 794361697 -512555892 -1515503222</internalNodes>
          <leafValues>
            -1.2589894235134125e-01 1.2679336965084076e-01</leafValues></_>
        <_>
          <internalNodes>
            0 -1 637 2142695166 -252537858 295623162 1379040242
            -1910226819 -1156954509 318028536 1533178226</internalNodes>
          <leafValues>
            -1.6953447461128235e-01 9.7696676850318909e-02</leafValues></_>
        <_>
          <internalNodes>
            0 -1 1228 -145491977 -565379153 -1154483020 -68468738
            -1360541724 -831394316 -68837432 -405519776</internalNodes>
          <leafValues>
            -1.2226407229900360e-01 1.2865306437015533e-01</leafValues></_>
        <_>
          <internalNodes>
            0 -1 2236 -1440803579 1043800851 -94414338 442498935
            -1669522372 2105504035 49988616 974278494</internalNodes>
          <leafValues>
            -2.0585860311985016e-01 7.4273079633712769e-02</leafValues></_>
        <_>
          <internalNodes>
            0 -1 788 2139062111 1852668480 991452159 1550014399
            473584719 250554474 326575301 135333888</internalNodes>
          <leafValues>
            -1.6065037250518799e-01 8.8190577924251556e-02</leafValues></_>
        <_>
          <internalNodes>
            0 -1 2038 -139862576 -139788602 32419888 -16483686 -55313420
            -1933609921 -713460688 -915711750</internalNodes>
          <leafValues>
            -1.2785363197326660e-01 1.2951551377773285e-01</leafValues></_>
        <_>
          <internalNodes>
            0 -1 2303 -2039075803 921449303 -17320471 -1175592986
            1492489172 1949089516 -143883576 -1849265142</internalNodes>
          <leafValues>
            -1.3345859944820404e-01 1.0417311638593674e-01</leafValues></_>
        <_>
          <internalNodes>
            0 -1 1476 -900955081 -588873451 -1432397124 -1284329742
            -1428189187 1852687444 -352996164 -1045711222</internalNodes>
          <leafValues>
            -8.2762725651264191e-02 1.7170475423336029e-01</leafValues></_>
        <_>
          <internalNodes>
            0 -1 278 -134924489 -67387457 -680550407 1073348479
            100619015 -1797563017 -1392563074 -67109081</internalNodes>
          <leafValues>
            -1.1478320509195328e-01 1.1677832901477814e-01</leafValues></_>
        <_>
          <internalNodes>
            0 -1 2467 175075065 -1831596239 2080107246 1207725743
            1107194569 485621582 -1326078323 -776130586</internalNodes>
          <leafValues>
            -7.9405412077903748e-02 1.6791000962257385e-01</leafValues></_>
        <_>
          <internalNodes>
            0 -1 2810 2011148069 591263057 -297819482 609742435
            563524693 358417143 -291159928 1080420067</internalNodes>
          <leafValues>
            -1.2925566732883453e-01 1.0339757055044174e-01</leafValues></_>
        <_>
          <internalNodes>
            0 -1 1874 611585804 -68282725 1591667422 498367480 803192573
            -17920017 -1142424594 452986252</internalNodes>
          <leafValues>
            -2.2350259125232697e-01 6.1029996722936630e-02</leafValues></_>
        <_>
          <internalNodes>
            0 -1 384 -721962187 -620953729 -1886085 -4998337 -808453231
            1920040829 -185114690 -135534225</internalNodes>
          <leafValues>
            -6.8567343056201935e-02 2.0016044378280640e-01</leafValues></_>
        <_>
          <internalNodes>
            0 -1 133 -8932353 -1879082343 -29378433 -927042229
            -210381069 -13371885 -279457057 -33597473</internalNodes>
          <leafValues>
            -5.4918363690376282e-02 2.3310212790966034e-01</leafValues></_>
        <_>
          <internalNodes>
            0 -1 1490 -1535236335 -799637634 -1518371741 -1189083344
            2004735413 -26738753 -1082665846 -2121126774</internalNodes>
          <leafValues>
            -1.1002954095602036e-01 1.1790777742862701e-01</leafValues></_>
        <_>
          <internalNodes>
            0 -1 312 1039612890 -1958661846 1557099455 251718943
            1182083818 351212067 1289121861 3154192</internalNodes>
          <leafValues>
            -2.4308633804321289e-01 5.0752498209476471e-02</leafValues></_>
        <_>
          <internalNodes>
            0 -1 2081 -1944190432 1364018213 1339749999 325705535
            497503232 -810691177 -888223772 2067515935</internalNodes>
          <leafValues>
            -1.4486636221408844e-01 8.7358720600605011e-02</leafValues></_>
        <_>
          <internalNodes>
            0 -1 2853 -1459640409 116027279 -1275337756 -2081554836
            -1796227643 749594101 1300066799 -1040257073</internalNodes>
          <leafValues>
            -1.3684603571891785e-01 9.7361534833908081e-02</leafValues></_>
        <_>
          <internalNodes>
            0 -1 2501 -1010989565 1389541354 -1485410446 -1225872534
            -1491288111 523523953 1138529932 -1292206773</internalNodes>
          <leafValues>
            -1.0025003552436829e-01 1.2772981822490692e-01</leafValues></_>
        <_>
          <internalNodes>
            0 -1 1712 -1071347193 1368272506 486489015 360753868
            126791573 1183219645 -704747884 -1481214270</internalNodes>
          <leafValues>
            -1.0397915542125702e-01 1.1616436392068863e-01</leafValues></_>
        <_>
          <internalNodes>
            0 -1 378 -1493497297 48377839 -671480153 540212918
            -1554569657 309820687 1383594052 1349630327</internalNodes>
          <leafValues>
            -2.4775290489196777e-01 4.8726093024015427e-02</leafValues></_>
        <_>
          <internalNodes>
            0 -1 2276 -33380480 -156864759 -1747511332 -575967306
            -1890507132 922439509 -2141190776 -1245451094</internalNodes>
          <leafValues>
            -9.6429586410522461e-02 1.2445614486932755e-01</leafValues></_>
        <_>
          <internalNodes>
            0 -1 2659 -1967968479 -1595005121 -8815830 -1075906159
            -1778542608 -1414627364 -1931195256 -1211018672</internalNodes>
          <leafValues>
            -1.3172373175621033e-01 9.3128606677055359e-02</leafValues></_>
        <_>
          <internalNodes>
            0 -1 8 -1481932801 -38027799 -237549720 -3460130 260079551
            130569958 65762291 100029941</internalNodes>
          <leafValues>
            -1.3292191922664642e-01 9.5146618783473969e-02</leafValues></_>
        <_>
          <internalNodes>
            0 -1 1231 532372983 451011836 2009857973 -1898850477
            -1247119774 -139089941 -286406933 -1022656376</internalNodes>
          <leafValues>
            -8.6995989084243774e-02 1.4248454570770264e-01</leafValues></_>
        <_>
          <internalNodes>
            0 -1 2243 376964645 1577362459 -1480648145 -139581164
            1236111863 459030499 502863808 -1242929480</internalNodes>
          <leafValues>
            -1.1832710355520248e-01 9.6969604492187500e-02</leafValues></_>
        <_>
          <internalNodes>
            0 -1 167 -201457681 547100651 1435297018 1426052337
            2004052598 351659521 1449345654 2147221244</internalNodes>
          <leafValues>
            -1.3018079102039337e-01 8.8533557951450348e-02</leafValues></_>
        <_>
          <internalNodes>
            0 -1 1763 -947935691 -59942401 721387391 -5264156 501198843
            939483102 -605224994 -223364392</internalNodes>
          <leafValues>
            -6.4627096056938171e-02 1.8117158114910126e-01</leafValues></_>
        <_>
          <internalNodes>
            0 -1 2518 -399145199 -428991139 -1141175504 -180719761
            577551488 634670870 2079094664 -121482212</internalNodes>
          <leafValues>
            -9.9013917148113251e-02 1.1508826911449432e-01</leafValues></_>
        <_>
          <internalNodes>
            0 -1 2744 -500255963 -1431949465 2147477104 812170190
            1065219793 167046003 1962017904 -843639982</internalNodes>
          <leafValues>
            -1.2602111697196960e-01 9.0570457279682159e-02</leafValues></_>
        <_>
          <internalNodes>
            0 -1 1602 -1906283416 2094562801 -1097302033 725119093
            -1648841508 -285848588 750815688 741894264</internalNodes>
          <leafValues>
            -1.5763418376445770e-01 7.1007594466209412e-02</leafValues></_>
        <_>
          <internalNodes>
            0 -1 2310 117128983 -692309144 -159385930 -1786860898
            777959423 -940597796 -563105172 -1599277448</internalNodes>
          <leafValues>
            -1.1442322283983231e-01 9.8073817789554596e-02</leafValues></_>
        <_>
          <internalNodes>
            0 -1 2286 -277107277 467986252 -1388925039 -202591856
            1348314565 2099404789 -154836068 -251193190</internalNodes>
          <leafValues>
            -8.0316364765167236e-02 1.4256481826305389e-01</leafValues></_>
        <_>
          <internalNodes>
            0 -1 2133 7808295 418618174 -269112577 -739708078 886923169
            1993928469 951918043 -1223072664</internalNodes>
          <leafValues>
            -1.2729066610336304e-01 8.9733459055423737e-02</leafValues></_>
        <_>
          <internalNodes>
            0 -1 218 -551756201 2121170611 -50856205 -60836109
            -697985343 1392049639 -566789496 -139496069</internalNodes>
          <leafValues>
            -6.9834306836128235e-02 1.5995296835899353e-01</leafValues></_>
        <_>
          <internalNodes>
            0 -1 1023 -1069907416 -397678406 -2089142032 168966192
            -1005158400 975389201 91422857 1985883092</internalNodes>
          <leafValues>
            -1.8319384753704071e-01 5.9717752039432526e-02</leafValues></_>
        <_>
          <internalNodes>
            0 -1 32 -554696705 50015187 -44614029 340144931 -1437848478
            1412579122 1850896445 556819458</internalNodes>
          <leafValues>
            -1.6999408602714539e-01 6.6383451223373413e-02</leafValues></_>
        <_>
          <internalNodes>
            0 -1 943 -1359740241 1803059048 -540164511 2146340181
            -1571246337 -348209537 -2012251397 -824452642</internalNodes>
          <leafValues>
            -7.7836021780967712e-02 1.6361704468727112e-01</leafValues></_>
        <_>
          <internalNodes>
            0 -1 2734 -399145453 -54747193 1048541999 -218829232
            1940750213 2033480277 1848660161 -154409122</internalNodes>
          <leafValues>
            -9.3726709485054016e-02 1.1966700851917267e-01</leafValues></_>
        <_>
          <internalNodes>
            0 -1 340 -277184413 1525103016 435105571 -348110686
            1316451295 -1439569409 1362489923 -704777056</internalNodes>
          <leafValues>
            -1.1644273996353149e-01 9.2844843864440918e-02</leafValues></_>
        <_>
          <internalNodes>
            0 -1 2720 -6373597 -109384278 -1210318986 -196972
            -1510766777 1853810557 -186718738 -510157214</internalNodes>
          <leafValues>
            -7.0512436330318451e-02 1.5308710932731628e-01</leafValues></_>
        <_>
          <internalNodes>
            0 -1 2347 -1157576876 -553192380 -749826626 1363035748
            1061493173 1038023142 263720188 2074610172</internalNodes>
          <leafValues>
            -1.6089890897274017e-01 6.7572116851806641e-02</leafValues></_>
        <_>
          <internalNodes>
            0 -1 2500 802111237 537587706 1221509774 1076022958
            582548230 74393098 122611085 1349895062</internalNodes>
          <leafValues>
            -2.2069150209426880e-01 5.0423115491867065e-02</leafValues></_>
        <_>
          <internalNodes>
            0 -1 306 670149541 -301516869 -156009359 -1141561556
            1736338916 -281117188 -413053736 -210536934</internalNodes>
          <leafValues>
            -8.3765439689159393e-02 1.2752774357795715e-01</leafValues></_>
        <_>
          <internalNodes>
            0 -1 2474 54396677 1589128055 -1694657741 -130229754
            1039404021 233719601 -22466908 -1469041112</internalNodes>
          <leafValues>
            -1.6086250543594360e-01 6.5363809466362000e-02</leafValues></_>
        <_>
          <internalNodes>
            0 -1 2750 -331380171 1524150009 788219890 -1140851084
            33466364 1818851615 1509241340 -538771360</internalNodes>
          <leafValues>
            -8.0362133681774139e-02 1.3048811256885529e-01</leafValues></_>
        <_>
          <internalNodes>
            0 -1 2758 1356712373 -1200265445 -285808347 581478493
            1853848071 1380588663 -1161966753 539132510</internalNodes>
          <leafValues>
            -1.4364793896675110e-01 7.2902485728263855e-02</leafValues></_>
        <_>
          <internalNodes>
            0 -1 1664 666817682 2130649105 -56885761 -1816093264
            -1465210118 -1275340615 -809960397 -787853686</internalNodes>
          <leafValues>
            -9.7428865730762482e-02 1.0679210722446442e-01</leafValues></_>
        <_>
          <internalNodes>
            0 -1 2353 -715487344 -658592387 670588496 -709304612
            1156679577 1022096711 -1497856614 -1008497478</internalNodes>
          <leafValues>
            -7.3717840015888214e-02 1.3880437612533569e-01</leafValues></_>
        <_>
          <internalNodes>
            0 -1 1009 -998271177 -1464025185 -1627981322 951893170
            1885282133 -805413313 -1075925307 -1355023186</internalNodes>
          <leafValues>
            -9.2649899423122406e-02 1.0988324135541916e-01</leafValues></_>
        <_>
          <internalNodes>
            0 -1 1809 -526414693 2050641739 1308518261 1572973694
            -2061721443 -1730368389 -335694916 -1414533436</internalNodes>
          <leafValues>
            -7.2358340024948120e-02 1.4073422551155090e-01</leafValues></_>
        <_>
          <internalNodes>
            0 -1 1296 -546754561 -1508282369 -994169041 -331642999
            26708053 1742970771 -597449349 -1210309599</internalNodes>
          <leafValues>
            -6.1839006841182709e-02 1.5983201563358307e-01</leafValues></_>
        <_>
          <internalNodes>
            0 -1 2037 -1640308959 -778029386 219797711 2133473718
            -1772644396 -314662929 217717172 212879504</internalNodes>
          <leafValues>
            -1.4537130296230316e-01 7.4804142117500305e-02</leafValues></_>
        <_>
          <internalNodes>
            0 -1 202 -1238077913 1625569966 -1086410962 -946749463
            1466250085 298186454 -168737212 863310166</internalNodes>
          <leafValues>
            -2.1494689583778381e-01 4.6847660094499588e-02</leafValues></_>
        <_>
          <internalNodes>
            0 -1 1461 -386095581 448571806 -1329805810 870491886
            -271319169 12053669 -1577271364 -1577096006</internalNodes>
          <leafValues>
            -8.7923422455787659e-02 1.1720144748687744e-01</leafValues></_>
        <_>
          <internalNodes>
            0 -1 2635 -986278125 -1636552861 -756060328 2029283194
            1632970497 1475884803 -1338702464 -1476787920</internalNodes>
          <leafValues>
            -1.1635044962167740e-01 8.6596451699733734e-02</leafValues></_>
        <_>
          <internalNodes>
            0 -1 1389 2113879711 -1576686568 597163319 930412169
            1225477216 -302671112 783434105 134555910</internalNodes>
          <leafValues>
            -1.4091981947422028e-01 7.2858661413192749e-02</leafValues></_>
        <_>
          <internalNodes>
            0 -1 1882 540674048 -432007657 -61492356 893508689
            -752057804 -939676459 -730273609 -1828483254</internalNodes>
          <leafValues>
            -1.4775319397449493e-01 7.6140843331813812e-02</leafValues></_>
        <_>
          <internalNodes>
            0 -1 2715 -1085714285 -1568565330 -365013230 -815800208
            1005875439 589020671 503141631 167497380</internalNodes>
          <leafValues>
            -1.3478288054466248e-01 7.8253187239170074e-02</leafValues></_>
        <_>
          <internalNodes>
            0 -1 2922 -563676881 1559162344 -469832466 -1745308033
            1236203441 762737967 -268503137 -2054185745</internalNodes>
          <leafValues>
            -7.1127109229564667e-02 1.4307810366153717e-01</leafValues></_>
        <_>
          <internalNodes>
            0 -1 1608 204472620 -2064106224 1052736439 515389914
            -2018072616 -1350670373 850280188 653400126</internalNodes>
          <leafValues>
            -1.9095619022846222e-01 5.2955862134695053e-02</leafValues></_>
        <_>
          <internalNodes>
            0 -1 2813 -210790637 -54349963 -353978284 -1242120342
            -2043326895 -1102737810 -227068144 -404787622</internalNodes>
          <leafValues>
            -7.1563273668289185e-02 1.4295671880245209e-01</leafValues></_>
        <_>
          <internalNodes>
            0 -1 1001 -25871413 -613270232 192227963 -1234821
            -1670176716 304378605 -1342279201 -270247600</internalNodes>
          <leafValues>
            -7.4256807565689087e-02 1.3383916020393372e-01</leafValues></_>
        <_>
          <internalNodes>
            0 -1 1934 -367995060 -1493145310 895432189 1043873021
            -1078134816 -1642745475 510818513 -809486219</internalNodes>
          <leafValues>
            -9.5429964363574982e-02 1.0533806681632996e-01</leafValues></_>
        <_>
          <internalNodes>
            0 -1 2727 585827952 862794355 1795121791 585868919
            -565262683 93349158 1223550042 1649442626</internalNodes>
          <leafValues>
            -1.7973662912845612e-01 5.5438097566366196e-02</leafValues></_>
        <_>
          <internalNodes>
            0 -1 156 -2059412045 -2099663939 -270323856 1593044625
            1731679204 1949521279 -59738376 -211579028</internalNodes>
          <leafValues>
            -8.4935389459133148e-02 1.1531835794448853e-01</leafValues></_>
        <_>
          <internalNodes>
            0 -1 250 1574896945 813100403 888406007 -368418861 248648976
            -280264729 299965542 439644690</internalNodes>
          <leafValues>
            -1.7621837556362152e-01 5.5550660938024521e-02</leafValues></_>
        <_>
          <internalNodes>
            0 -1 2399 -1698724077 -135262453 1043307313 2032565525
            805246133 2146840190 2138171340 -56628730</internalNodes>
          <leafValues>
            -7.6332233846187592e-02 1.2913095951080322e-01</leafValues></_>
        <_>
          <internalNodes>
            0 -1 1211 -862573259 1425333958 -25430529 -1316846928
            1952137072 1652932477 100159487 -1602250258</internalNodes>
          <leafValues>
            -1.0513235628604889e-01 9.1352351009845734e-02</leafValues></_>
        <_>
          <internalNodes>
            0 -1 2736 -270944363 -860555785 -134234186 -13205519
            -1958347340 1476204372 -1682593858 -201375794</internalNodes>
          <leafValues>
            -5.8971669524908066e-02 1.6364771127700806e-01</leafValues></_>
        <_>
          <internalNodes>
            0 -1 1800 3867153 858128412 -69424566 969161284 -2095665945
            176074453 -319117904 -1867110880</internalNodes>
          <leafValues>
            -1.3832944631576538e-01 6.8536572158336639e-02</leafValues></_>
        <_>
          <internalNodes>
            0 -1 2427 -248931071 -719835833 -1082496080 -766765364
            -817585020 1280886141 7409040 -1593626494</internalNodes>
          <leafValues>
            -9.9169693887233734e-02 9.6282549202442169e-02</leafValues></_>
        <_>
          <internalNodes>
            0 -1 1861 862332927 1960660447 -346359632 2036766120
            903174121 -37472353 -1479083528 -1046152872</internalNodes>
          <leafValues>
            -1.0358093678951263e-01 9.8105736076831818e-02</leafValues></_>
        <_>
          <internalNodes>
            0 -1 2461 287253683 1411802943 1056861558 -1275827892
            -1350697043 -16855083 -159910152 -205783918</internalNodes>
          <leafValues>
            -6.3941366970539093e-02 1.4968898892402649e-01</leafValues></_>
        <_>
          <internalNodes>
            0 -1 50 2139023138 727130754 2044721985 233978720 542246538
            707849010 1146570433 67502084</internalNodes>
          <leafValues>
            -2.4550618231296539e-01 3.9888959378004074e-02</leafValues></_></weakClassifiers></_>
    <!-- stage 6 -->
    <_>
      <maxWeakCount>100</maxWeakCount>
      <stageThreshold>-1.9866044521331787e+00</stageThreshold>
      <weakClassifiers>
        <_>
          <internalNodes>
            0 -1 1140 -18 -3126 -134479873 -5 -36771638 -17842038 -1
            -1041</internalNodes>
          <leafValues>
            -5.4666167497634888e-01 6.9258548319339752e-02</leafValues></_>
        <_>
          <internalNodes>
            0 -1 240 -4097 -67633153 -136321281 -218365953 -8429745
            2002221911 -67113345 2004352895</internalNodes>
          <leafValues>
            -3.8269895315170288e-01 2.3415027558803558e-01</leafValues></_>
        <_>
          <internalNodes>
            0 -1 318 -263169 -1 -1 -1 -1 -21 -1 -185073741</internalNodes>
          <leafValues>
            -2.4230340123176575e-01 3.2276731729507446e-01</leafValues></_>
        <_>
          <internalNodes>
            0 -1 2530 -272629761 -1884292181 -134614145 -838877213
            1174402551 94370749 1442312689 1174402047</internalNodes>
          <leafValues>
            -3.3841913938522339e-01 2.0363669097423553e-01</leafValues></_>
        <_>
          <internalNodes>
            0 -1 2258 -241 322961279 -86002721 821558783 -207623673
            1996975943 -17829929 1946157023</internalNodes>
          <leafValues>
            -2.6943856477737427e-01 1.9641694426536560e-01</leafValues></_>
        <_>
          <internalNodes>
            0 -1 638 1602183167 -34452481 1038040059 993145458
            1286163710 -261255 1065302778 711995490</internalNodes>
          <leafValues>
            -2.8174999356269836e-01 1.6972143948078156e-01</leafValues></_>
        <_>
          <internalNodes>
            0 -1 11 -6291469 -1088440413 -38273115 -6298717 -1562378241
            -1091842089 1674565631 1173352933</internalNodes>
          <leafValues>
